3015
6160
5941
1669
3827
5325
1610
2914
6013
1377
-1700
-2378
-1423
4701
-3226
447
-3201
-4116
-3809
483
-785
-284
-2299
-4967
1163
4131
1010
2360
-1133
844
3076
-1098
1689
994
163
2021
65
1171
-2273
738
141
-1226
-211
-1927
-2273
1261
3286
-785
2104
-592
1251
-199
1270
6352
1131
-951
-832
-2273
8038
6911
-1864
4157
-1130
-613
5706
-330
2036
-2460
-2242
3242
1536
-117
3168
-2739
2807
1048
-2933
-2709
2543
-11
-1791
-1241
-1355
-1261
-2046
-2129
2153
-3696
1216
1587
1787
2407
-2770
-398
1547
321
2038
-517
-21
-1061
-333
-1369
4107
-2215
-637
1788
-2487
-1437
2097
1372
3190
-1509
3881
884
4741
3590
-437
1946
-1548
-1032
2105
26
-1839
-818
1380
-6428
1172
1841
1845
520
-1122
-150
3153
-4432
-304
1402
879
-391
1014
1878
3962
202
279
-3532
-2660
-668
-458
-1148
878
2742
416
-1082
-2303
-5165
-160
-161
-1178
5202
3588
43
-1039
1
-1095
1272
3698
-2531
2412
-247
3076
5037
-2500
2815
-1012
-5208
1062
-1394
780
3434
-5481
3374
-2511
5013
1855
-242
-2019
182
-2896
3235
2988
3450
2935
836
381
1920
-1986
2322
79
-2456
-1610
-1633
39
729
-1336
-1393
-2105
-415
-983
-4544
-2976
1401
-2417
-1711
-2231
1193
-1844
2019
1328
-222
1950
945
48
3591
640
-1186
4550
1807
2085
-339
441
-4601
-2061
4432
-3098
484
3132
-3588
-1935
4807
-4901
152
241
366
1116
444
2146
-733
-2766
279
937
1680
-5527
215
-4416
3
-2262
-1600
-164
-1048
334
3873
-755
-26
-216
2551
719
-4405
1940
-904
-3455
-735
1831
-494
2055
-4431
3306
-368
-2254
-2898
156
-2136
2340
1078
3366
648
1691
3180
2613
-1924
-1037
-1631
6531
57
-4026
2033
-2374
71
2695
-282
-2062
3190
2598
-574
1890
-4220
-2665
-1631
4947
3589
2409
1367
2577
1055
-1852
-247
-367
-3294
-5081
-1395
4227
-318
-4214
510
31
2318
2167
3243
-1226
1330
-2082
4421
-112
-1079
-1077
-1113
183
-133
630
-82
-1553
-1095
-137
389
-639
-1221
-1714
1742
-2984
-1024
-3213
691
6427
69
1361
2311
810
931
2
341
727
4127
-4253
2464
-576
-73
917
372
-844
355
-2590
-1663
-1496
290
-46
-3964
-7333
-1785
1090
3931
847
3729
1638
-489
-1939
1149
3897
781
-3312
-314
-635
-3535
277
1672
-3342
-734
-2654
2414
3536
5306
2680
949
4801
2539
-425
-527
2642
-1232
-2466
1940
-5628
-1363
2337
-3329
5605
-3958
288
-915
3593
-747
-3449
-3338
-1236
-2758
3147
453
272
1619
425
-2363
-1009
-2270
376
-145
-4069
2332
4222
-3169
-1843
-466
-16
-2391
-3632
-1395
-235
-2809
292
1269
2794
1662
-1115
2109
1623
2452
-2272
1215
-693
-2917
652
2840
2708
3363
3759
3002
1274
-3817
996
-1637
2147
3501
2088
1861
-988
-718
-1910
-716
-13
2107
-541
-5409
2938
600
754
1103
57
3414
2368
-799
1931
-1041
1819
2002
-583
-1002
1779
643
-437
-1850
-117
1380
1783
2720
-2742
-381
415
-341
-306
-1171
469
633
-1172
-2047
-2336
-357
-2883
7050
836
-665
-3036
-1049
2325
-455
-3346
-3568
-2566
-661
1526
61
316
3189
5464
-281
-3193
-2098
-2983
-2041
-1188
-8891
-2005
3401
-1829
-768
1816
3810
1634
1574
-702
2266
-513
722
-939
2359
-4651
-4032
-1970
-1209
-848
-2126
-1621
-1245
-2803
-1479
-3729
2309
4516
3199
-3072
-1573
1630
-4204
-1878
-1930
-1202
-1361
-185
743
1897
2216
2858
3823
4989
-201
635
-2757
-2378
1872
-652
-1289
1759
-2257
1570
953
-13
298
2239
332
1145
32
2464
-373
2528
493
-1523
4934
910
-4943
-7863
452
-552
-88
964
-988
75
2199
1809
3100
1724
4245
-3598
-2107
-2418
-1515
-2918
1113
105
-2178
-2280
207
615
3580
-3613
-196
102
-2774
1999
-3560
-1875
-1535
1377
-2682
5464
1929
5896
-524
1161
3547
321
-863
3641
2783
-342
61
1857
183
-2470
4962
4860
1417
717
283
2537
-658
599
-663
-954
-2940
1391
-1128
924
-1947
3084
-2883
-3076
1419
1720
-5239
-4840
-1965
2440
-336
2708
1695
683
-1465
3642
-1209
-653
-7720
-2583
-2491
1310
-5569
-1559
33
3457
2298
-4326
1849
-1101
-3355
-1032
-2654
-3559
-245
-6263
-2535
1791
-46
-5180
-1554
4418
-518
-462
424
795
3710
-127
-545
-3150
50
-599
-693
-595
-569
-547
-254
-479
-319
-431
-526
-866
-84
-568
-693
-588
-597
-248
-647
-299
-531
-423
-537
-219
-504
-243
-464
-240
-546
65
-364
-334
-375
-428
-860
-684
-242
-171
-472
-424
-200
-417
-712
-245
-262
-158
-545
-41
148
-183
-8
-52
-160
-198
-90
-144
-10
-396
100
-362
-297
-251
-211
-164
-286
-63
-162
60
-202
-73
-331
-333
-75
-338
-558
-425
-64
-180
-367
-587
-517
-728
-673
-254
-471
-872
-442
-194
-634
-635
-125
-230
-587
-756
-278
-183
-343
3992
1831
-2776
875
2628
652
-2916
548
1109
1726
-861
-3278
-1868
-4562
1837
-257
4203
1308
-2398
-780
-1448
-2056
-750
-690
5567
1564
620
-459
4475
3840
1429
4933
4004
2695
-1663
-3644
-3027
-4968
-1293
1034
2170
-106
-670
4491
2612
-464
4466
-392
-1891
111
-515
-3174
-4882
2204
2130
1474
4004
-390
143
-8313
-5882
-234
-7661
-1818
-1163
-4599
-1205
-687
688
-2063
-6595
2449
-6900
-2654
1557
-5934
4428
2559
4908
2054
-1621
99
506
2284
765
1886
2435
-1731
-3974
-5992
3797
4599
-5274
-2641
-3714
-422
207
-1153
-1805
13
1427
2590
1023
1435
1048
4677
5232
-2919
-931
2124
-874
-3998
-3444
-2715
205
-1874
676
-267
-2159
186
3652
2515
-4
1149
2166
378
386
-663
-2100
1831
3351
-134
-233
-838
2220
-830
-1511
789
1500
-1082
2457
1526
-147
-1082
-574
-1950
-697
-3621
-2437
-2573
-1980
-1151
-1490
-1535
-3144
2513
1988
-3000
-2276
-1593
-2691
-1556
-2110
-2354
-3401
688
1624
-3038
-1109
-1224
-2227
-521
-1149
784
1819
-1478
-191
-576
-498
-1828
-1412
-3069
-2925
929
1337
-1605
-1063
1478
1783
128
-91
-2379
-352
3393
3692
34
42
1065
-3902
809
559
-4940
-1073
-3393
-447
2376
2373
-3029
1303
1343
2427
-1373
3502
1602
-409
-1094
-1863
-986
-442
-1357
-1846
-395
624
2002
1236
3039
-520
-1026
755
-2133
-2328
-1271
-1176
-5881
1935
-4270
-1119
-2878
1008
-2559
-1827
-1256
5179
-1029
-824
3965
5192
-2205
715
227
2880
835
-1119
-3233
388
-5289
142
3345
2130
-4274
406
1255
6837
15
666
1048
-970
159
3961
-825
-2183
-3257
-2225
-1055
2627
-2169
-1972
-4928
1461
-2457
-2599
1174
127
2693
-1777
543
-1885
2833
-23
-768
90
-19
-227
2061
627
-1667
-1107
-3702
1164
-1430
-3547
2897
1401
429
2420
485
2837
-1737
-415
2846
-1111
1128
3787
-108
-2309
188
2157
-1730
-1683
4719
3778
2031
947
990
2854
242
340
-542
-345
-4886
2463
-1908
1302
-1654
4856
-1804
-762
-630
386
-3498
-2923
-2327
1310
412
-2113
-3019
2843
-214
1492
-817
-1691
-5899
-3714
-555
2036
-4155
-2230
-656
1888
3022
-253
-1716
-3634
2131
5367
-266
-4877
-14
-2394
-2431
462
-144
-4117
-822
2619
783
1659
5109
606
2108
123
210
-4630
3564
-824
-1214
-581
363
3923
2779
569
1066
1011
-1938
1817
-620
50
1660
7482
3589
-2747
-6391
-4973
-1407
-2130
-2764
-1672
1388
3938
-3004
-1947
-56
5146
1838
1403
-348
-3038
1469
1815
2015
1080
-1732
-1710
3070
5329
-4013
-2187
3818
5669
-130
2810
3634
5135
318
-2232
1141
7855
-1852
-4693
-1786
-3429
-2145
-2808
-2701
2315
3794
-2816
4635
-2120
-6299
-1166
-1305
-840
-2982
-5961
-3735
-1437
-594
1604
1247
5386
99
850
-312
2864
2557
-3038
-1337
-1984
5073
755
-2308
-688
428
4154
-1803
-1516
1234
4997
2000
-1939
-3219
-2680
273
-1001
2743
3250
954
-1366
-251
-2879
1554
31
278
406
1169
-4132
-2993
2805
-3397
1978
-3269
-1119
-704
-1836
1422
3113
-2198
-3336
1333
2204
850
1540
-3248
2208
-2448
-1979
-682
-2099
3805
-234
-649
-80
1337
-3549
4323
-378
1193
-78
1647
-1946
5802
74
436
602
4915
732
313
-1791
-486
-4376
-1672
-201
3613
4698
2129
-1915
2766
837
-957
5037
2935
-1382
2790
6946
1352
-2695
-93
800
3319
-1499
-2109
-3010
6906
-123
292
-2089
4083
3057
368
-5435
1920
618
463
-2977
253
937
-724
-2677
-82
1448
3320
375
195
2924
7418
3495
-3549
1617
-2091
-1642
-1012
2035
369
-1834
534
4322
-279
-1109
-2455
4207
1768
1813
-1351
2015
653
638
1070
93
-1431
2048
1025
-308
-2531
3013
-662
1715
2447
1940
-455
3595
-504
1109
737
672
1566
-683
-1482
-345
3648
-490
1588
2667
1652
-3433
-4295
1618
4464
800
996
788
-3232
-3122
1231
-2644
-2178
-4710
-3727
-6976
-2377
2476
-6854
-3518
9
5219
390
-256
2426
-4066
-37
680
1798
-4417
-3459
-1337
-2554
3451
2250
-2800
-997
319
715
973
1120
300
-111
265
1546
3393
124
1519
5106
2552
-218
751
2588
1512
-2922
-4299
-4211
-1983
-2381
-955
-1649
-1302
-233
-3446
-1999
1402
354
-521
681
1629
-2102
-2325
-895
2773
329
662
999
3001
-509
1045
1201
1837
-991
-809
1550
-1796
3150
2375
-703
-1953
2408
4984
572
-3878
-1871
-106
594
-1091
2822
2048
-576
1815
1494
-1942
-1218
-1233
-172
-256
984
79
-3973
1725
-2711
-2473
3115
-1849
1055
5021
-728
2544
-467
-3022
-1929
1060
-22
-3659
848
258
212
-1212
-5273
1719
251
2779
121
-1777
-5013
-3145
27
-784
-3092
2974
-420
-4352
-2790
-331
4130
339
-3230
-11091
2838
2368
2941
6788
-707
-2213
769
3403
2097
-103
3329
-2670
329
-293
-4628
-4035
-1451
1585
-595
1592
-78
1308
1834
2022
1283
-4835
-945
-3335
1507
-2978
158
-3975
-4518
-4113
-390
-3472
2263
-5588
-31
-898
7882
-2342
1034
-633
-742
189
-926
2410
-18
524
-1427
-5313
4620
1059
-1378
1765
7880
378
5054
2262
6541
697
52
-1280
1733
-1170
-1591
204
7051
287
-1192
1031
4675
8401
5784
-1393
-109
-2079
-7953
-11481
-908
-3395
-4933
-4641
3039
2387
2824
5948
2108
1678
3879
3483
-1435
-259
3432
1921
-7645
-8970
-2038
2773
-3784
2890
1024
-1379
2872
79
3176
3460
1563
-1451
2098
1245
-3943
-1463
1439
4211
-2758
-5701
-1576
-812
2185
-2307
1180
2058
-516
-3421
3647
-3239
1230
885
-3128
-460
-4425
-2175
-5769
-103
-1027
1309
-1105
-230
5585
1107
1842
-1
849
1640
4326
-1277
-1874
769
5715
2962
-2699
-586
3197
1206
2447
-2787
1187
4012
-1475
-1156
-3548
3257
-59
-3044
-8943
2013
984
1956
-6091
-3856
425
4810
-295
2866
-344
-370
-640
-696
-366
-461
-416
-393
-95
-422
-901
-798
90
-444
-889
-345
-424
-458
-598
-264
-564
-565
-270
-325
-262
-205
-603
-155
-541
-110
-283
-187
-457
-425
-675
-651
-166
-162
-511
-431
-335
-59
-586
-248
-162
-332
-695
-115
43
122
43
-14
-281
55
-207
-175
-175
-135
-392
-80
-272
-293
-249
-221
-32
-216
-157
-13
-271
120
-401
-382
-248
-208
-443
-495
-224
-60
-422
-397
-507
-630
-364
-165
-651
-700
-447
-191
-507
-728
-569
-257
-654
-722
-153
-15
128
220
448
752
442
543
433
544
331
490
895
781
196
412
651
303
297
244
646
428
443
369
610
449
309
136
576
500
589
24
337
222
115
232
876
600
359
201
563
399
298
444
759
396
305
153
804
246
93
29
-7
161
60
255
88
202
244
283
129
339
202
242
220
240
-187
118
-73
229
412
381
354
387
10
319
435
421
160
135
541
346
550
647
482
83
439
807
402
436
686
691
5
215
605
1023
-17
175
1787
-429
-890
2135
-1372
-2514
-4345
-2220
2299
-2389
-5747
-4338
4398
-700
-157
-3395
3783
2978
1935
-274
3108
-2459
-2133
2237
-90
-2611
-2361
-2668
-1213
-1735
-4982
-3438
-1371
-1043
-4346
-3643
1531
5366
5340
-3059
2751
-2046
-1629
-2601
-31
-3060
192
1249
-2339
675
3641
2355
3503
-500
3195
-60
-64
-3647
58
-3691
2517
155
-3080
1504
484
94
1914
-432
3958
1399
588
4644
6850
2321
-1767
-3150
6606
-1407
-3741
-6012
2771
-67
333
912
1988
2503
6187
-2975
3118
4155
6851
-4467
-5427
-2701
3499
-4586
490
431
813
631
258
634
393
331
192
396
174
694
167
588
776
235
563
416
588
422
436
299
334
357
158
151
234
71
475
507
399
154
92
248
768
441
393
202
692
429
164
17
490
325
83
368
711
-118
-291
-127
-78
157
132
316
152
42
90
163
170
250
102
128
142
182
295
4
-27
144
303
65
157
311
436
520
505
302
148
225
437
367
457
635
435
101
454
965
651
368
650
567
296
461
716
613
-127
269
1817
-2634
-4075
-1163
-1095
-1127
2598
781
997
2815
-1251
1209
1814
-733
3385
3481
-5533
-4107
-391
2968
-2860
3222
482
-183
3510
1398
3789
784
510
-754
-173
114
2451
91
-2303
2638
-3277
-1894
-2034
-2139
5287
751
-3931
1355
2040
154
388
1878
-84
351
81
1194
1559
1776
-2108
2486
-3741
-4235
1674
1700
136
2601
1403
826
-426
1229
2491
-934
1111
950
2433
7183
1646
1945
1749
-1423
4354
2571
1464
-2680
3076
-542
16
2971
1631
-6076
-1039
4493
-680
41
1748
-6
-675
-1404
-494
646
4098
-422
-1290
289
-212
71
-1452
-2141
-821
-441
-2266
-1638
998
1116
131
5375
581
2053
1148
1204
656
-1383
-950
-1335
2845
7909
2142
-2438
-1175
132
-614
-57
3079
3577
897
-2514
-108
1455
-1395
-3897
394
3742
-1742
-2063
4236
5585
528
5982
-740
361
1671
5498
-1578
245
252
3329
-2887
-1564
-2773
2612
-7522
-6448
-5415
-5821
-2602
414
1551
5628
-2790
1386
1771
3056
423
-3300
-642
3511
3385
5851
120
-3229
-91
-3269
193
1731
3354
-4374
2228
3324
-947
-1881
-1350
1023
5122
-4003
2363
3822
-23
-341
922
821
-635
-301
-1266
-241
-564
-221
-534
-1843
257
-1183
-116
-487
1160
973
-639
-1298
452
186
-294
-117
-1048
-196
-2074
51
-841
-508
-553
818
-1109
22
-651
-1462
-414
1915
706
-34
-1102
1218
-798
177
-1132
-135
-839
620
91
54
-184
-565
-65
-4
326
-1569
42
-766
371
63
125
-145
-200
50
-533
-536
-56
899
-611
-955
-1049
-760
-655
582
-909
-282
-1062
-3
-407
-299
-412
-482
-1044
-1171
-212
218
36
-1050
193
-971
503
-823
600
75
1023
-441
178
593
378
327
427
195
635
649
340
366
583
490
132
479
395
361
434
356
352
240
179
132
467
487
386
205
518
204
351
84
302
413
388
95
736
141
615
48
506
482
108
-52
309
389
268
-22
639
449
-46
-69
95
122
-51
-17
84
46
-17
218
147
-58
87
146
369
-62
-42
241
188
303
303
150
164
395
11
88
183
510
229
205
420
255
640
699
298
116
526
689
526
132
609
538
342
141
587
668
266
254
-230
-965
2375
2577
2497
1008
3239
-87
-2360
-121
-4345
-1685
-801
1511
352
1564
408
1591
2575
-84
-1552
2200
-238
1002
-2863
-5028
-1956
1200
-4569
-1699
1427
1246
2114
1469
-100
-758
650
566
375
937
-2100
-579
-3351
2870
-2920
-587
-2312
1957
1715
251
190
375
3116
-696
7172
3139
1367
-1136
-241
2997
-3393
-3021
-2191
176
1218
1265
596
-2447
-525
-2879
-2572
-2701
-3206
1419
1636
2396
-4202
-1677
-3002
-2146
170
-2452
3561
-88
-1347
-1425
3058
2238
-3741
-2115
-499
283
-1320
-3745
-494
-1749
65
-2766
-2736
747
-599
-384
-1815
-2062
-2305
2377
41
-3336
-1778
2050
1359
5154
-3496
-10
1973
1614
-1567
679
2138
-665
1864
3547
1389
-29
433
-1798
-826
-1972
701
1813
2499
-1510
-3751
-3022
-2656
-2319
-268
4838
-7
1893
973
1473
-2896
936
1229
679
199
4391
-4775
1352
-2879
2213
-3019
917
794
5456
-1277
556
-1156
-488
-2222
781
2906
5250
-1480
-1552
1645
5463
-1426
-1305
1409
365
-396
5792
1407
-4067
-53
-2278
-938
350
-649
-1874
-2817
2533
-5373
-2881
-97
1214
2705
61
1909
5909
183
598
481
298
74
232
585
594
522
359
623
527
97
455
498
464
315
64
394
159
229
233
527
22
432
208
624
79
312
410
600
204
309
55
419
889
130
123
464
304
475
228
371
220
390
333
394
326
53
-366
-36
-102
34
-239
-8
112
108
-89
177
106
362
73
156
209
109
184
50
438
265
287
214
282
176
-27
-85
222
145
133
243
262
529
547
638
518
585
355
366
342
280
571
499
36
355
647
-30
134
250
312
207
-374
1544
355
696
442
-713
1540
2378
1696
-633
-89
-633
-1112
23
237
536
643
1005
1513
461
996
-447
204
598
-818
639
876
-351
-496
1976
-768
-264
-44
1190
-179
-213
293
1581
-55
850
948
951
160
-916
595
132
444
969
1094
-216
1082
2862
667
-227
-3188
-1635
-22
1116
1202
1493
777
914
1621
370
-438
1112
-186
-332
-479
-1250
742
803
-427
-537
-740
-1135
-1084
-492
-93
1164
54
-1578
-939
80
586
-149
-265
107
510
1842
823
971
-565
-1444
1175
-483
-92
1240
-772
-27
2575
-643
1845
3171
1219
706
2858
1782
-1193
-3711
-3052
-1141
63
367
198
-2432
-687
-908
-2056
2192
3061
-110
-547
2837
2302
294
-638
524
1090
-1673
-3323
-2195
-1777
-5
-1838
4480
1207
2223
-332
1197
-1595
401
-1389
-528
960
1107
-394
-556
651
-55
-1259
-1894
-4494
3838
981
635
1172
18
1866
3539
376
-514
2611
4332
2318
-372
2005
1235
211
105
-900
1490
5102
-1405
-436
-1707
2826
-1666
670
-3509
-1764
-2012
-846
-4725
-2658
945
2511
1780
2117
372
584
518
637
440
443
688
391
501
331
446
555
117
389
534
374
411
559
515
116
347
406
579
199
197
193
249
283
303
391
413
72
238
377
681
559
426
204
515
173
422
109
811
533
-151
354
620
306
-85
-70
42
375
368
-19
439
247
117
302
264
331
73
552
177
-119
71
47
95
11
351
140
202
490
140
483
527
356
187
23
807
509
617
599
382
70
576
659
494
278
456
1008
339
203
526
608
204
289
2272
-1167
-3082
319
-244
-950
-2963
0
477
2087
-1030
-6846
3150
4005
-225
910
2437
-1764
215
1199
930
-2033
-1168
3385
713
2007
-37
-2013
662
-2696
171
1321
631
-1443
-1393
-412
69
-2527
-1243
-5510
5479
3859
-179
-5925
6923
2438
-27
419
1555
-866
1221
2004
-394
2919
3439
1941
255
-1203
-5003
-364
-3001
-5705
2960
1353
3103
2243
482
-899
2350
-793
-806
4097
1775
-1226
2641
10466
913
5330
3473
-287
1
608
-1112
-304
2616
1780
-1226
-68
-1468
-1136
-1111
532
4311
-2804
-653
-1045
-429
-568
-331
-431
-260
-514
-452
-665
-237
-383
-556
-208
-207
-237
-357
-660
-629
-325
-119
-194
15
-456
-321
-256
-306
-363
-209
-677
-441
-226
-335
-1
-360
-288
-579
-560
-571
-63
-435
-277
-321
-198
-652
-239
40
-396
-329
-387
-32
-19
-137
54
-257
-116
-274
-70
78
-47
-48
-245
-416
-630
-423
-345
-261
-25
-247
-171
-151
-181
-67
-222
-39
-340
-219
-211
-34
113
-250
-105
-402
-384
-416
-112
-467
-763
-515
-273
-566
-723
-526
-44
-531
-943
-193
-297
-244
-304
-449
-504
-565
-535
-402
-279
-298
-446
-688
-384
59
-770
-495
-405
-196
-409
-475
-438
-507
-63
-458
-417
-20
-101
-689
-254
-488
-251
-353
-229
-146
-259
-815
-161
-75
129
-444
-174
-216
78
-491
-485
114
-270
-673
-323
-202
-183
-192
-159
-37
-192
-249
-515
-84
93
-181
-346
73
-471
-376
-254
-346
289
-76
-276
-356
28
-437
-43
200
-137
-410
5
34
-126
-214
-34
-286
-1026
-548
169
-169
-953
-311
-251
-446
-337
-229
-97
-586
-642
-34
-471
-4727
-1293
4753
890
-784
2304
153
-1279
2592
-931
-2852
1729
1752
-3938
-3483
-2602
-1325
5249
3312
1665
-1774
4020
842
3879
-2054
-6985
-1140
-740
-430
2197
1901
2129
1397
2797
720
549
-52
5159
-831
2530
775
-5644
-7359
2122
-4462
-3287
-1410
-1794
-1241
-1887
-4721
-5332
674
-4401
6229
1438
2787
3216
3864
2049
2140
2699
-1186
2322
-2436
425
-4711
-6877
1058
5505
-2776
-3760
3245
3108
2692
-3207
-2119
-3004
-306
237
-232
-3944
1752
4979
-1198
-1546
2130
3384
155
-3398
1390
-1310
-2067
-1333
-112
-7604
95
-1223
-5319
-7615
3909
768
4159
8063
3532
3038
8543
6184
-3728
4060
1577
-9
-5920
-10556
-5440
-445
-5956
7150
-2859
872
3128
-353
5546
3074
993
-1254
2074
2730
-18
-1684
-6267
6767
-3742
-2686
-1441
3314
4263
-840
1636
4367
-1506
-4530
1637
2558
3317
1829
360
-2825
8641
5781
3915
-5802
-1929
176
1371
-999
440
700
1825
6500
7371
4016
543
-8438
4820
-3828
2409
3605
-4445
-815
736
2744
1270
-1262
735
1960
6698
-2576
1240
-1826
-983
-1663
-2986
-276
-3021
3872
2325
-444
-4183
-1987
-3965
3664
-1581
-1510
222
-1398
-423
3037
5033
4102
2925
5063
-2821
1579
4009
3197
1635
3151
-3480
-6011
-1061
2460
-5594
3755
-2504
-753
1075
-5230
98
2264
-1246
757
1313
3102
768
671
824
5405
-1433
-1349
-2322
-1890
3888
-1314
-8099
2533
749
615
1364
1417
2675
1331
-783
-2056
6892
4506
1407
-242
812
1536
1947
-850
-197
-563
3237
2010
3870
1663
-1957
-7230
3185
1476
2161
5638
644
1026
2962
3499
2658
326
328
610
1769
148
3371
2181
2522
-2131
640
622
-2465
-803
1957
-3324
-3951
-6795
-1525
-1239
744
-1621
-2555
-64
-357
-130
2152
3201
1498
1042
-404
593
3064
1547
4074
2754
-2838
-4880
-942
2129
-3071
-1017
312
-1112
3124
4000
-580
-2313
2780
205
-2103
-662
-3986
-620
3370
5754
-783
217
2610
-347
416
1708
-1254
-1074
530
1864
3116
1823
-1269
675
-2207
76
-734
1853
-4086
-548
-1205
-3165
-3589
844
-2266
-1173
645
-2377
-489
-2667
-509
-628
-3901
-3556
2523
2846
-403
-684
-2195
-164
6393
5518
1098
-722
-230
2222
133
680
1489
-2475
-1890
250
528
2878
2534
-2532
-712
-1008
389
-1275
-700
-1771
1313
2738
-2488
-429
-520
-3119
490
-1841
-3294
-1389
-23
-1653
1898
945
2688
384
-2572
-1739
669
-2684
288
-1838
-341
1360
-2241
-1470
-17
162
53
139
-3964
-2844
1995
-600
-885
2379
2144
-574
-3610
225
68
-1778
-2359
2372
1168
-164
39
727
-1040
-1144
-470
658
-4957
33
-459
2331
316
-1710
-1580
-794
-472
-1526
-884
-3065
-457
3754
-2092
-1879
-296
752
-1888
-1308
-1259
78
-2245
1811
1259
-86
-1112
2297
-2209
-1278
134
2667
110
-2030
1000
-1075
-797
-1780
2431
680
-44
-1705
-776
1716
-315
-3579
1394
2516
-4100
-1331
1549
-1381
-519
-117
-2050
-1907
67
2135
-248
3456
2858
-930
171
1135
-675
-464
1998
971
894
98
315
15
-821
596
1461
3805
-2503
-4823
1953
1145
-2213
-1273
1773
-1128
-2853
138
1366
744
-258
2806
1572
1027
1921
3286
-167
-1754
3447
915
-1315
673
3132
-1798
-338
2910
-924
-1144
-476
-214
-373
124
299
2228
2367
-352
2025
2415
577
-214
2294
-949
-758
-1192
3454
-2054
1174
2788
2472
-741
2541
3547
1017
982
1872
2877
2926
2046
3581
1539
-4721
-216
4257
3230
644
1380
354
-1554
393
1650
-2175
2468
-1505
-1207
1688
-1884
460
2859
-1016
-2718
-1277
-63
1266
-283
-1163
-7511
-5069
2339
-341
-777
-181
325
-3822
82
-960
-1028
47
1465
758
3725
-2322
-1713
-4351
3463
-5475
-1657
-2411
-3160
387
914
-799
-3688
672
1240
-2601
-2314
-980
2168
5691
-1480
4350
7067
5207
7890
773
-1264
-2931
-1269
1785
2586
-2194
-2649
484
3845
-2106
-4053
-3787
-2350
-3182
-3479
-678
1819
2808
-2112
-4170
31
2674
-2091
-740
-3915
2780
-224
-1857
403
-1016
1211
-1736
-2214
-329
-489
-3594
1267
-2100
-1199
3144
383
4908
1558
-605
-1841
-31
-996
-1719
725
-1139
-1188
83
-259
-1676
-2186
1808
3579
138
-1835
99
726
-1422
-2123
-1095
-241
-1523
791
1196
1918
-2524
-888
2149
612
-2496
-1327
1459
327
-1557
-3512
-1601
-235
-1296
-855
-6204
-2067
-4629
-1517
-1310
932
2076
-1824
6412
7475
2981
569
-5082
-1528
-1833
1052
-2912
1857
2175
-1786
-37
-2479
872
-4553
1267
-1088
568
-566
-3694
-2659
-359
2152
-1721
-5361
-2769
-1706
591
-1227
-1304
21
1176
5014
1831
884
-266
-368
-335
-809
-449
-525
-478
-729
-149
-455
-507
-624
-371
-584
-647
-553
-287
-693
-574
-319
-538
-338
-538
-505
-374
-62
-371
-492
-472
-253
-395
-54
-239
-206
-560
-365
-213
-254
-799
-583
-208
-169
-745
-220
-64
-271
-358
-449
-141
69
-40
11
-332
66
-360
-239
24
-103
-249
-322
-212
-48
-423
-370
-159
-281
-199
-88
-498
34
-233
-71
-139
4
-211
-464
-178
-222
-359
-454
-171
-632
-392
154
-391
-950
-455
-100
-484
-955
-1
52
-475
-760
-95
-101
-358
-491
703
1794
1437
109
1830
-2967
1025
237
-1596
3596
-6203
-4917
586
2074
-1458
-13
392
-860
-397
853
2091
-841
-477
-1064
-892
1593
1375
-259
1754
422
233
-2089
-981
1713
2953
3588
1557
187
-21
-2870
-3081
3206
-3715
-971
377
3451
1661
1233
-1339
548
3052
2149
-2381
226
-924
-2319
1779
439
3090
5673
-3885
1808
-1644
-3207
-1656
80
-734
-3039
399
3070
-2560
4065
134
-4419
-841
-4
-701
-1770
-1808
-2977
-612
368
-6481
-2596
-755
2115
-116
-2054
-437
503
1884
4371
-744
-937
206
421
407
1009
641
945
622
794
186
290
472
777
75
607
682
246
426
523
616
571
549
365
431
431
503
-245
392
298
479
138
381
9
53
385
920
563
397
241
579
653
95
-67
956
583
-6
129
870
95
115
-30
98
153
556
275
440
353
229
68
197
481
355
175
0
480
331
17
216
-58
335
-3
572
499
413
622
571
170
306
-41
579
617
304
458
425
331
566
1068
447
572
920
523
31
192
619
916
-79
275
415
-2512
-346
-3111
1597
2518
3433
2878
816
977
-1320
2885
-368
-26
-1114
-1410
-835
-1668
206
409
-2049
5668
477
350
-733
-2460
3523
2251
-800
1775
2291
-49
2445
1975
-257
1832
-7
124
-404
1760
4601
-1569
-3207
2507
-1271
-2302
-258
1822
-2184
-1807
-2120
-2341
988
-4205
3760
-696
3162
-1609
135
1550
-934
-849
-234
1518
1875
2748
-645
-6515
1620
-745
-1278
-2852
501
432
2231
-735
-2326
-3834
-318
3316
440
-1120
2681
-856
661
-3297
362
2288
-2019
-1416
-1793
3606
-1662
-2137
-2417
-3492
8
1050
-1924
-1384
-293
-2655
-404
464
-613
523
3958
-3314
208
707
591
-8768
-3949
-878
2933
9332
-170
633
82
-1049
2016
5535
5918
-298
2665
-1815
-1030
-1467
502
1197
3319
4285
-1242
-3324
104
1656
-3011
569
4068
-3195
551
966
147
-677
-7924
-7226
-2453
3112
-8856
-8042
-3281
268
3860
-89
-1153
847
5312
-337
-2566
-3787
-9543
-3582
3465
2513
-7439
-1906
1733
8172
1129
1936
5488
247
-565
1504
4006
-1134
-2245
-7619
-6766
3039
728
-3710
-7110
1973
1960
826
-418
-2475
6239
1311
-1554
-4468
39
124
555
818
309
579
837
463
32
737
605
713
30
446
632
426
418
276
233
309
523
157
381
487
325
117
320
535
408
-91
408
119
149
303
1016
409
376
-19
560
686
66
61
655
314
42
360
696
361
-198
172
-81
196
24
5
190
19
327
-54
-109
42
452
356
376
286
248
208
238
426
303
253
157
478
-57
-32
252
405
193
105
416
686
499
682
647
234
84
867
360
296
610
838
112
178
774
1133
88
258
-1801
1934
-989
-2636
2194
-58
-1673
169
-1205
1396
1769
-1407
-2017
-570
-2990
-136
5
4196
2417
66
1644
1949
-766
100
-1919
2547
1451
144
394
744
-1558
689
3045
4095
-3846
-4125
1415
-579
-3098
353
2991
1747
-241
1171
2350
99
-4631
2542
1086
537
3856
2537
-1914
-706
5823
-602
-524
-2204
1951
2738
1979
-351
294
-1447
185
3080
744
-1520
2201
1341
-2684
-2690
383
710
-34
1551
-3457
-2640
184
495
2049
-2586
2398
236
-1753
-328
1943
1800
-1546
-1622
217
2813
1534
1161
1903
868
2317
995
335
199
3099
-179
-2341
-1972
-5601
-2536
1562
1976
-2545
1649
-590
-965
644
-1564
52
-2886
957
1939
1308
1539
-1549
-2015
1249
3818
-1989
-4440
3115
725
1232
1124
-2824
-5240
-443
-2229
-1151
1253
-4085
-367
7219
3672
-1230
-594
1473
871
1220
-1673
193
-157
4972
-3398
4222
3037
4121
-743
-490
-2410
-3730
-1860
-1738
3875
3191
5324
4970
-876
4320
-27
353
-1230
-2831
-989
-436
711
-6331
-7423
-609
2682
87
-1708
1542
-2243
3041
1981
-2169
-1403
-956
-2342
-4905
933
1191
2834
128
1859
-2281
-373
-1300
-740
-189
-1638
-326
1550
-1191
-1000
1314
1367
1294
-1203
-3007
-6949
1208
1446
1229
2669
1890
2050
4851
989
-385
-1712
595
300
1933
317
613
-1457
-695
-1054
928
783
-1273
398
886
4859
-278
-3125
2984
-731
-2502
-3470
-221
-1638
-3857
-2913
-1412
-3487
-295
-4088
1111
1738
4229
-3032
423
-360
160
3331
1499
897
-40
278
-468
-2419
3576
1224
-1970
-2847
1744
2167
1905
-2162
-23
-3439
-2610
960
457
1171
623
-1795
-1022
2163
-1756
820
4034
2072
-388
-645
-2053
111
-6569
-9460
2609
-1228
-4612
-2324
2895
3203
2426
5657
-350
987
2988
4861
-1469
3126
-679
1734
3280
-2681
-3642
-2702
-579
-1584
-404
-390
-1765
3320
1797
-1394
1691
3525
3559
894
1533
-985
531
6103
3422
-3011
984
1333
4566
1802
1440
-424
1343
3605
481
1363
1041
3495
2020
-4136
-853
3890
1100
-4036
-600
-505
-4467
-996
-3451
-2639
4858
910
8163
-130
-7813
-8307
3555
-3524
-4387
-7626
-377
-4147
-2851
2132
-2307
-762
2470
5256
310
3871
5216
-4215
1518
1423
2065
-390
-2472
-504
-2760
4662
-2407
-1649
-3208
-1226
4346
795
-707
212
4302
-2545
749
-19
-2575
864
-1829
-3244
-4603
2021
3444
2063
633
-873
1207
1935
-1576
852
2363
2392
46
-1922
2067
870
-853
-2299
-766
-594
2489
-2659
-1441
-3326
-1528
-1849
2645
303
-2363
1408
3730
3329
-4395
1192
3073
5762
1195
-173
3377
3900
5430
1936
4177
3429
-1023
-2529
-1211
4127
-1542
-6884
-5422
685
580
-254
4527
4439
2344
-1451
299
7476
-3675
204
-491
2624
-2032
181
-1024
-2908
663
49
-1626
-2153
65
2149
460
2464
-1833
-485
-888
-3058
3249
1500
1713
1596
3111
-2744
-2983
183
-128
-1022
154
2500
391
615
-3467
-2153
1833
299
-3118
-2522
7298
2246
-2218
-1692
3064
-4257
189
-1910
-1022
3241
-44
-1590
2906
1804
-1222
-4022
-477
-1147
2584
801
-479
-77
2616
266
917
992
3387
-5011
1194
1721
1255
915
-4159
734
4619
-1192
-3511
204
-2765
-3595
3073
-2555
-2950
665
-4422
22
750
-2988
2584
-1222
-3583
-2554
2136
-4543
-5663
-6450
1246
-6357
-1168
2001
-198
1493
2269
-779
1555
5606
548
-5184
3598
1364
1545
-2110
-461
2840
1990
1645
-464
-513
-2413
-2391
-189
-464
-552
-720
-494
-671
-616
-617
-348
-521
-588
-577
-580
-528
-774
-615
-273
-266
-340
-424
-448
-279
-385
-426
-443
-40
-301
-222
-354
-213
-227
-299
-319
-409
-538
-704
-391
-156
-507
-557
-219
-215
-480
-444
-96
-241
-703
-28
-184
76
-3
13
-159
-216
-333
-167
162
-157
-125
-291
-142
-135
-262
-315
-26
-117
-342
-417
-406
-488
-367
-407
-194
-441
-370
-188
-298
-284
-274
-327
-540
-621
-378
-69
-618
-636
-533
-157
-594
-532
-319
-149
-721
-787
-442
-346
1514
-1554
-182
5061
367
-4605
-2170
-846
-2697
-3056
-6605
-4764
983
386
-2127
-3385
5439
4357
4284
3710
2477
-2665
5523
4046
705
-4004
-3441
-3438
3417
-2730
-3241
-2103
423
-1871
983
-1394
242
1524
5544
2415
-626
-2370
-56
-2832
-4692
-2940
142
1488
-3400
-2328
4385
-5
105
-1276
1922
4145
1936
61
-4367
5120
-1061
-4112
113
1109
-1321
-1154
550
-106
1816
760
-1814
2950
7634
2914
-2004
502
-176
1456
2489
-2114
-1578
2110
2471
-2004
966
3452
1614
1765
3144
1540
2133
-1650
255
-1535
-3427
-8734
5088
5679
7532
9339
-11105
28849
8401
16354
-23048
-6549
-1312
31593
3610
12376
-9482
-19948
-4817
6591
-282
6503
-12305
18414
27380
-8437
-2729
-5045
-11079
-3964
10704
3757
13040
-10317
13421
-1782
-1244
-15674
21464
-9354
11064
3603
-7772
5202
-24170
-10714
2051
-13066
-17416
13752
3383
-2908
7512
17378
-10744
-20150
12731
-3282
5995
-7964
-3027
2792
3634
-8386
7478
-7841
14666
13895
-10940
-3940
-9035
-7141
-7920
6903
-15197
1416
-4014
-12777
-9296
16565
-14489
4135
15501
10510
-19386
-3443
-5078
15219
11847
15442
-8522
-10742
9043
-6729
-6768
7676
5332
-8600
-27037
11005
17866
1198
-34
8863
13039
4461
-1004
-22001
12534
26289
-7676
-4851
-25041
13077
4000
15781
2838
-19648
14399
16924
-13018
-8633
-15028
-10650
11858
8121
-14526
-2256
-3892
-12415
-7067
6831
-15028
21354
12293
11317
795
177
2543
-13241
-1638
18964
-8774
13125
14931
-14047
-14935
-1797
-26943
-12574
21231
7203
-12815
430
-21286
-5529
11134
-26106
13458
-6011
14380
-23404
4095
-19676
6504
17343
4483
-5290
2096
9729
-12271
12903
-14378
28251
-6804
4520
7567
8508
-8319
-5831
-4777
-7890
-894
-18904
-10917
13805
7371
9992
-16039
7010
-2927
13732
2405
-15916
-5899
1717
8926
3059
-13891
700
-10502
-13361
-43
-17939
-4753
15573
2159
19751
9133
4746
-19508
13511
5399
18370
12546
-402
6800
6783
10254
3593
10394
17778
6367
3408
-4477
-9672
-5641
9950
-20794
-4200
-8667
-3745
-16142
-928
-9853
6430
-4291
-13952
4413
9849
24483
16812
20540
6476
-1484
5567
-3006
3715
9461
4377
-4070
13152
16707
-6013
-10034
-16849
649
14147
-19109
-8339
5000
-17670
6638
8394
8139
-9803
-16701
7771
-3026
-20451
28034
-13703
-3926
23151
3264
5388
-7819
13726
-7265
23468
10409
686
-7134
-691
10520
-5971
-2598
7899
-4813
25117
8247
9622
8415
-6200
14332
-7137
-7476
12841
-12291
4458
9338
-10296
-6191
-4330
26539
-12400
4696
-4656
-1851
-21799
9771
-10986
5060
7162
1082
15460
10595
-10944
10977
11531
22233
557
-5656
4204
8569
-25386
8647
9484
-7931
-14870
-10217
4539
17681
6054
-9836
-4810
22929
-8472
-2342
941
-8252
-7455
6080
6499
-23923
10463
-21528
5970
8076
-5338
-11947
11883
9894
21858
-8530
-9160
26341
-6546
-8554
7169
-8298
-11009
19848
-5243
7431
-10230
8124
-1271
5570
-12898
-11474
4477
-9721
-15238
5351
8906
181
8245
-11385
1759
-4842
10518
-1526
8467
-14707
6237
-5853
12197
-3314
-6673
4985
-3993
-1623
-2039
3337
2225
14601
31837
14185
-15664
-4935
-4248
15113
-9613
-24
12104
2875
11993
-14405
-5189
4324
23167
11862
4098
19348
485
3972
20955
-14749
20202
1227
22880
-353
-1459
7896
-4409
-2523
20241
-17538
23455
-7351
-1557
-2134
-5542
299
-2117
9427
2097
-1449
-2520
7582
-21
-2642
-4969
-1207
2219
3417
1476
-2236
-4471
-12295
-9403
2531
3643
-12329
4366
-1815
-9329
-3677
12596
13630
-3770
6513
10046
8395
10275
-3414
27720
5892
-3212
1765
-6315
16838
-5183
-1556
-3611
-2717
-6667
-20809
-3657
2201
-3703
-18871
19202
-16469
19602
-10809
-3319
-4658
8018
-15475
-12484
-4324
-14848
-10429
-1177
-17772
-16121
15134
11263
10327
-31075
-9453
-2601
10628
-13792
19065
20549
16499
-3585
-18237
-9190
3205
-13949
-5936
-7758
3335
-8097
-13099
5648
15986
10311
